{"loss": [15.502290938444997, 15.128096926111603, 13.270153625253716, 11.261999592421946, 11.380150307695759, 12.540102209829744, 11.459321007860893, 11.880454091686754, 11.969591192461213, 11.82845827872308, 10.874473180533455, 11.783059302712767, 11.756002962191463, 10.913073110318495, 11.320125570451289, 11.372964170014944, 11.645429438625898, 11.567139306680145, 11.22490522762905, 11.471543380430777, 11.60113332564732, 10.817844778536951, 10.371966558921038, 11.33290814168652, 11.456875696263497, 11.637559982363003, 11.405978064535972, 11.626196618201257, 11.120755760472715, 9.97767488253161, 11.569875843462595, 11.307024790090216, 10.818505691431719, 11.243348295983786, 11.020887901026557, 11.306578963917906, 9.290507298660994, 10.450014750935791, 10.979892681869789, 11.506026335250137, 9.058012129167125, 9.652446259398145, 12.147331725267795, 10.708126174330504, 9.38281561020256, 10.245889215286079, 11.504693348494964, 10.061175726756787, 9.180239280071275, 11.466885302048066, 9.002210997611286, 10.913039469701339, 8.706179768095431, 11.297434937628154, 11.24378469437142, 11.39947747380719, 11.247682322943177, 9.628369457393452, 11.559563659778393, 11.110655999903031, 8.931770936331121, 11.88604334068728, 8.668204208319878, 11.048489257878078, 10.80986394776042, 10.24324152616877, 11.613646828377592, 11.496480830976957, 8.383322240449047, 9.992071895836334, 10.67402244577424, 10.055407435737079, 8.970951589919807, 9.397513138996, 8.40859504625489, 11.366492900899413, 12.088778598297823, 9.788299277780895, 9.26358590897659, 9.058643981667476, 11.603805410963671, 11.854844516694275, 11.39347326060337, 11.426966196029468, 11.278672663895524, 11.437880976284719, 9.987635842547613, 9.991162319204353, 10.724191052605123, 11.56096250969968, 10.104728818811008, 9.199747348672329, 11.264921299060271, 11.33535083178074, 8.569888309109079, 11.369439862716813, 9.634147849827562, 9.98756622628271, 9.63482104961623, 8.514803298614954, 12.124841390851639, 8.108581434318008, 10.519881697431344, 10.65386398198721, 8.582027493002979, 11.125625749870427, 11.768428271478417, 11.719801852987505, 11.221065744919406, 9.79167198033126, 9.627725184994036, 10.948100999346789, 9.929773445320349, 11.965562664853573, 11.309178885885183, 10.872532975465612, 10.665787698667753, 8.712408517359158, 11.862344001304598, 10.2037342432301, 11.148553663989373, 11.406027295961321, 11.029142986871838, 11.316705462113742, 11.422523498415085, 11.544871427720452, 10.60424764611295, 11.56920055890849, 11.31919984096116, 8.767977061543133, 10.896162372104994, 11.679785737357436, 11.289358586400668, 11.427825603138038, 9.656673925222455, 10.755006558027299, 8.506714203631509, 10.392151368939764, 9.254260305878832, 12.24978057197769, 9.20110808576352, 8.544002991674914, 12.956198103528363, 9.357536926119774, 9.40230680607666, 8.189549689532882, 12.234855960438045, 12.335846763197106, 12.126668785634179, 12.049617339186877, 9.13275602566747, 11.949353839602065, 8.3694279881092, 11.475359331413953, 12.34928065670456, 10.726526816794598, 12.128423110366068, 11.456994874597394, 11.738815863292418, 10.911988606638142, 11.0247687958684, 11.39970133740262, 11.213614372864287, 11.15014349968227, 11.198693256127449, 11.422485530239106, 10.573924479891549, 11.584767347913067, 11.631740878490572, 10.399471170180325, 11.717549306122894, 10.645822844152192, 11.94807596913853, 10.98838218058141, 9.691005988806882, 12.07594600435093, 10.537868095078322, 11.307778548826494, 12.213452619616435, 11.502174790790386, 9.848665284760884, 12.103825750529365, 11.848789464640806, 10.925477149596292, 11.981286516791442, 11.567641008195576, 10.312662752751049, 11.123497044922406, 12.419247412035475, 11.784830557087954, 11.396846234433829, 11.269126969986464, 10.887396707245582, 11.953955462252155, 10.434678849644571, 12.05116066372273, 11.77148991427165, 11.411885399423305, 10.397221200872584, 12.585864181071344, 11.726226083138412, 11.080816900234169, 11.594179989674553, 10.434089045209301, 10.709033595928263, 11.451140770810223, 11.550760198351616, 9.902333606309249, 12.18645189307196, 11.925001059052764, 11.803525927195784, 11.225892814694395, 9.932186832364334, 11.846260610056186, 11.921090675668994, 11.39343859654669, 11.727859069395228, 10.49492865279493, 11.154584588034755, 11.094363210424197, 10.089608489600684, 12.690687822138592, 11.707363155011533, 12.302845412327372, 11.39402675128676, 10.71373707672202, 10.218917804251713, 10.726787274030485, 9.89576658332562, 12.890500956741612, 11.799224441033179, 10.863390270009404, 11.12453463447547, 10.417470560527299, 11.51257327831486, 10.166223078321176, 11.926795110980022, 9.918547837625892, 10.49743979997847, 12.092732105903146, 9.345344089619942, 11.728655107276577, 11.735882711523626, 10.126312984730403, 9.875205366446004, 10.94569801464043, 9.718125499001776, 10.77070616620793, 10.149349621093261, 11.095790905130425], "mae": [65.65838009465939, 61.58473473937068, 59.10111779064389, 57.14316386313894, 56.21656956504937, 56.07038649362536, 55.02795174373454, 54.90660990422695, 54.794928814298544, 54.53796319626085, 53.86790243944331, 54.3166899561283, 54.25503587962395, 53.656568345113016, 53.797069913777875, 53.79368253928333, 53.950203171926525, 53.85787174090668, 53.59921291485504, 53.733068820819184, 53.813533380402994, 53.328324150200466, 53.165278736670416, 53.57134085803775, 53.59987291498999, 53.71963006407771, 53.52537781988556, 53.69865066681675, 53.35194749688383, 52.863533480083525, 53.578600437796894, 53.36495885417689, 53.101302621352616, 53.29348624531348, 53.114179007372066, 53.256892582879, 52.551018930559785, 52.990618758465175, 53.068126160894806, 53.25393887620476, 52.36216532644914, 52.62129955195901, 53.80026482816917, 52.9209190061943, 52.36674886732245, 52.544873817482184, 52.991153640363684, 52.33823268257793, 52.140017753869444, 52.97487341339264, 52.01624926849825, 52.63805107615102, 51.838508835989025, 52.92337089806945, 52.73514347939036, 52.808512433689444, 52.723268978559794, 52.00994924804074, 52.78585953448885, 52.467847967866675, 51.813989648866894, 53.00921316482314, 51.753374895258766, 52.45853102027471, 52.233318348026756, 51.89964018395199, 52.599085381282634, 52.569563189942635, 51.417063631604066, 51.896199921267716, 52.18820155924888, 51.77994048535524, 51.58586653512926, 51.87186773098893, 51.33375217686945, 52.42254983719869, 52.78222708007199, 51.541447759273666, 51.22456181588485, 51.26207250087106, 52.35975568378391, 52.38574435363463, 52.01417873133367, 51.95248959411928, 51.87886609024738, 51.985253492192406, 51.57206221920761, 51.67511793357044, 51.94609161837017, 52.108084002930916, 51.47562130491937, 51.33752077188923, 51.95834365921404, 51.8562784434563, 51.24093330805026, 52.18209012668935, 51.45803298183422, 51.63333386751874, 51.277843724543125, 51.19942620052165, 52.23732579293563, 51.06254015975262, 51.98063111425045, 51.611892642687316, 50.98099724851062, 51.64968070792193, 51.731396718240866, 51.690785240288356, 51.4269684259616, 51.054681845046765, 51.268085728937656, 51.681787385413394, 51.28628223745068, 51.99401556427155, 51.57523397704465, 51.2931585072273, 51.17939867565979, 51.09668296545594, 51.82248601482142, 51.286594850933135, 51.57886395861755, 51.47444522800158, 51.257040205912375, 51.48649727519433, 51.67868379372448, 51.79108442373611, 51.336218311559016, 51.680822209497194, 51.42769592131802, 51.18270960285436, 51.70832010010379, 51.973407323636, 51.460214566944835, 51.357287785515716, 51.1713361692189, 51.43569097087611, 51.37708769371761, 51.89036939611387, 51.21834109895792, 51.85527882024871, 51.14199800347563, 51.353246717596775, 52.93635177612305, 51.40552008930762, 51.01604666781785, 50.697084091416556, 51.789879036908175, 52.10495725468775, 51.82142830853486, 51.781510952130034, 51.05637758341267, 51.4853250129738, 50.75696880014698, 51.52742880433049, 52.20583788234385, 51.080885441459, 51.77597979444954, 51.174264936590916, 51.18839825577472, 50.85830999019757, 50.82333671148099, 50.94561284510934, 50.925747128587275, 50.9412281093885, 50.97825559299795, 51.307641954278225, 51.022454324080115, 51.4412335726484, 51.59979677439934, 51.09213918177926, 51.60375470492109, 51.41760401510114, 51.949923855575484, 51.34113215920913, 50.9653774050612, 52.115492758439416, 51.13251919003587, 51.722862972087, 52.21903738664023, 51.63196368193507, 50.83503516115735, 52.157143080054816, 51.770583167148, 51.454907556275025, 51.999718785884994, 51.46686900920005, 50.9617565480908, 51.564113597774025, 52.29615369633814, 51.74869383998852, 51.26652269986407, 51.250429469736375, 51.195620896229194, 51.72905215546114, 50.73222684620613, 51.89675692457649, 51.334545423038044, 51.357630264818965, 50.9703236105454, 52.11068064243949, 51.359197031912494, 50.91319750301802, 51.1087288017848, 50.54000967591252, 51.06800940048755, 51.50784579713141, 51.054293110143, 50.62906065897726, 51.9524922203179, 51.26919185695936, 51.069806333762315, 51.00681320267107, 50.63096478716213, 51.6764366878337, 51.414658608748084, 49.304910880237365, 49.25176881186327, 49.08099668109836, 49.45209085282369, 49.345059495475425, 49.148863883473766, 50.144558815500844, 49.42893567876001, 49.49907191674314, 48.80439491847053, 47.884729145759316, 49.272449455069534, 47.53015780808339, 47.08247406159214, 47.98805702631198, 47.027955155875816, 46.56211632580014, 46.32649790701554, 46.77928360982157, 47.20158234792738, 46.53963888350444, 46.923713147340706, 46.63132352205976, 49.98603238053058, 47.687119622925415, 46.34939176473186, 47.55228726947727, 47.26315899949577, 46.44948284590065, 46.51055273698203, 46.94091877386199, 46.59991966899316, 47.39394303901711, 47.05429234336968, 47.45036302499436], "mse": [6702.624277912119, 5672.55523957679, 5227.728078870917, 4898.729882321765, 4736.123125392588, 4694.757590442447, 4530.911206422738, 4503.578165485631, 4480.309484433888, 4439.4284643432, 4343.003987221263, 4402.651356145964, 4392.50177032624, 4307.771123684831, 4325.54074204028, 4324.029577820745, 4343.927902451712, 4330.203689345163, 4294.043400596734, 4311.573464245053, 4322.834363467729, 4255.233295383166, 4234.542630142902, 4289.945251158135, 4290.795280111495, 4306.134349727151, 4278.76520542164, 4302.73792546718, 4255.742634068782, 4190.532837527481, 4285.907351699906, 4254.899342905936, 4219.159475355292, 4244.672234463333, 4218.592461820823, 4237.236775920619, 4150.785709553627, 4209.007221164416, 4213.565288601209, 4234.30390723147, 4125.622608894079, 4160.652022318624, 4322.009622085035, 4197.173899281564, 4124.642585486024, 4141.252718671482, 4193.922840520964, 4109.198896091787, 4092.179516969614, 4195.444283183496, 4075.799360572393, 4149.391543901146, 4052.988394119033, 4191.727002934595, 4159.528684683181, 4167.640831108668, 4157.945995848382, 4065.8169166143216, 4161.990441710505, 4116.788312902403, 4047.0214463430434, 4195.64550290515, 4043.62226660647, 4121.739408713489, 4085.565973176429, 4040.3100487790516, 4129.06907584799, 4128.412818486966, 3994.846723853643, 4046.685213175251, 4085.221349668263, 4026.666578743326, 4015.5145441563286, 4060.078720016096, 3990.831102534155, 4124.967550153109, 4163.533849668263, 4001.2266446981, 3956.169461811008, 3965.4758043145416, 4106.897430266567, 4101.001262415593, 4047.2080016783134, 4033.164495573571, 4021.062082875314, 4032.911040799702, 3995.924521288081, 4013.8147107608356, 4047.897697717101, 4052.824845663866, 3978.389518392745, 3974.204741971577, 4040.3732689325534, 4017.575865165672, 3972.072562519629, 4078.9904650204144, 3987.489405032977, 4011.56655224364, 3958.986513377434, 3972.1303404228174, 4081.841962498037, 3961.417231420776, 4072.557939845713, 4004.508119209328, 3937.980385325063, 4005.2902856568, 4001.2295621172266, 3990.151673896828, 3956.045935242619, 3920.199277638191, 3959.941141253141, 4008.3661618640076, 3956.283076760757, 4040.749460191583, 3980.723857323728, 3939.089279404837, 3922.866726209171, 3950.5394256438444, 4010.073040986181, 3950.3983761581344, 3984.917341836134, 3954.444674544598, 3929.7001707757536, 3960.302612918106, 3988.77911898359, 4008.9789315228486, 3949.677761365421, 3985.8828934712624, 3950.249652805041, 3960.672154718907, 4006.94381575848, 4042.650710829538, 3957.1361139192054, 3935.8040949375786, 3941.282523457129, 3964.857115165672, 4004.605920226131, 4057.98325244386, 3963.2981202398714, 4020.238954783684, 3952.072041113772, 4007.448732922425, 4191.794805325456, 4009.174263652246, 3941.9259836781566, 3909.201758303235, 4023.134463823021, 4059.006980704303, 4018.9494849736966, 4011.7207853231, 3955.5475436263346, 3971.71762744386, 3910.548004917164, 3994.5039479624684, 4072.354319203439, 3928.2412955892746, 4005.7881264231314, 3927.6376536000316, 3921.899079135914, 3882.083995416536, 3872.535396710113, 3882.404871034862, 3878.9314185674466, 3878.569041496545, 3879.222234217965, 3930.3414202359454, 3900.5628790927294, 3947.153517833307, 3971.883263976131, 3914.707054559909, 3972.6089357922424, 3964.6393748527794, 4029.9356425683104, 3945.23115332522, 3909.5697236180904, 4058.828283262013, 3920.027241922503, 4004.556813609061, 4069.7669156328516, 3983.5878206952734, 3885.187228868954, 4066.494435065955, 3999.683110376099, 3965.858960328989, 4039.703282035176, 3955.604818526225, 3896.6591023967494, 3982.826152245603, 4090.838021896592, 3999.569984934438, 3926.7503876805904, 3926.493885442839, 3925.1220396415674, 4002.5070162825846, 3857.93974511228, 4025.353157388505, 3930.737473991049, 3941.807619641175, 3898.083059339667, 4060.0048337390076, 3942.060085584171, 3876.1425560419284, 3898.899858177607, 3825.3231342258164, 3907.1889108629084, 3970.1094473834014, 3892.3992423052764, 3849.330655965374, 4034.9829874470006, 3920.3877051271984, 3889.753478083778, 3889.869655896671, 3851.2277684810774, 4000.622511973932, 3948.033699994111, 3635.0846861259424, 3624.182569340845, 3615.9970212390076, 3670.8308596203674, 3649.8238813697394, 3633.775476503612, 3774.2143849128456, 3664.582736681454, 3661.0216585858984, 3560.6871908369976, 3439.271369052293, 3635.4310161648086, 3399.254893854036, 3341.600459573257, 3459.321017931454, 3313.8119736867934, 3254.344461565641, 3211.6740661314384, 3290.210554726759, 3343.2741956854584, 3257.400873998901, 3298.986742796011, 3274.7874025891174, 3741.3915917478016, 3415.610300035333, 3239.72366471027, 3403.984221645336, 3354.425753032742, 3246.1250306709326, 3256.294932916536, 3312.880205470713, 3271.103716826319, 3381.7792085427136, 3333.472271023084, 3387.502516243326], "mean_q": [-82.8199319183511, -75.62050114923986, -71.89469150562383, -68.97371295948125, -67.56872127283758, -67.29182702452694, -65.83549079703326, -65.61724767253627, -65.47754991234247, -65.123910721822, -64.22660965655916, -64.83612045211409, -64.765606060699, -63.98420979868826, -64.19687662172556, -64.21221429259334, -64.43935793009236, -64.34150139890124, -64.0240985161096, -64.22391929818158, -64.3517273370944, -63.72949763159057, -63.535659099943075, -64.12498863258554, -64.18699398711698, -64.37460127787374, -64.14665005554505, -64.40156189041521, -63.965191270837835, -63.32233164418283, -64.34494881174672, -64.0924097185758, -63.76224088429207, -64.0541710398305, -63.84824147056695, -64.07206110738629, -63.11549295013275, -63.7590820082468, -63.9138801804739, -64.20807438759348, -62.99038602359331, -63.39063719169578, -65.02089683494376, -63.780431737851856, -63.02280412606858, -63.34596837106063, -64.0427323921242, -63.17132645036707, -62.91851877567157, -64.15357904098741, -62.82238888381114, -63.76140991287615, -62.66075320219874, -64.21892957831147, -63.99176077147824, -64.11113215690881, -63.995884880947706, -63.00173285019458, -64.14740059243974, -63.7518741665174, -62.80772580094074, -64.53087750152127, -62.74427412023496, -63.79851794602284, -63.52582174329901, -63.09869582209755, -64.13595427700024, -64.12281262575083, -62.478165056238225, -63.22520937512268, -63.64705962751379, -63.100797835306906, -62.80803682336855, -63.187735763626485, -62.44923366374107, -63.9744294324712, -64.45710503276268, -62.67873612600355, -62.28729593094869, -62.39402546714898, -63.954598738320506, -64.01370877596601, -63.50510228219344, -63.470581399735494, -63.42728989567589, -63.644842272427816, -63.051217984913585, -63.19537069809497, -63.58493099500186, -63.90478021056209, -63.02365857991741, -62.81432258184232, -63.779025207212825, -63.70425144751467, -62.735995077008575, -64.09709073550736, -63.04093325437613, -63.281216722037925, -62.82665967701668, -62.676076649421425, -64.23263419453224, -62.420056999628265, -63.65988548317147, -63.1615363844675, -62.253068761010866, -63.26443983681837, -63.46315266978201, -63.45947545497262, -63.12679407704416, -62.5952074060488, -62.89356492392382, -63.50511978379446, -62.95395543467459, -64.02089723749975, -63.43496015922508, -63.08728859292802, -62.99698773101347, -62.79470391968387, -63.98498299373454, -63.194396627608256, -63.63978764519619, -63.60436149098765, -63.365039135343466, -63.734152348197284, -64.03223576377984, -64.18653311801316, -63.532998415692965, -64.08975187138697, -63.79478565771975, -63.30804395436043, -64.11717289296826, -64.46502079795953, -63.7899864810196, -63.7289570180615, -63.39893962150842, -63.83097500058275, -63.5681077391658, -64.23222719125413, -63.25323748947987, -64.24640139862521, -63.08354397874382, -63.29072653228913, -65.50182265851964, -63.14825251593662, -62.62785026895341, -62.22659487700343, -63.83372892446853, -64.23081561908052, -63.790810589814306, -63.69840238561582, -62.65614696483516, -63.44126826914112, -62.36299186974914, -63.50624636549446, -64.44630343949974, -62.82870721098167, -63.8611176265544, -63.001556473161706, -63.075837255123275, -62.62559300331614, -62.668959114419756, -62.94202139389575, -62.988685416216825, -63.11073192040525, -63.28074379542365, -63.80659042051689, -63.45940115463794, -64.14752933368013, -64.40905656287418, -63.72756565036486, -64.53399228810066, -64.26998109673735, -65.07287106921325, -64.23354780494269, -63.787624263284194, -65.48513632922915, -64.15410437655808, -65.06402217922498, -65.75514803939129, -64.91410273642995, -63.8597975687765, -65.82747069315694, -65.28394045422425, -64.82449797050438, -65.63483350360814, -64.90019783901809, -64.21774244068855, -65.20944585752248, -66.23115769582778, -65.44246884446648, -64.7645768017026, -64.72291687625138, -64.66908538281618, -65.47383416717376, -64.18366826119734, -65.88055391167876, -65.10473674985033, -65.11958849729605, -64.61685692485253, -66.27636310443208, -65.17249729405695, -64.57140231491933, -64.88379226377862, -64.14187727501644, -65.00392085703174, -65.70451767121128, -65.12560833878254, -64.54120557392064, -66.52303935295373, -65.54211168912188, -65.24345696990814, -65.14120372216306, -64.65833993652957, -66.28448578340924, -65.92296914718858, -65.05025873232127, -65.50075889472386, -65.19826043670501, -65.83484045824214, -65.78046292635663, -65.55342981923165, -67.10550200879274, -66.05004578020106, -66.10506149752057, -65.01432507002174, -63.86531839418651, -67.04718504479183, -65.34591279916428, -64.75247826887734, -66.15494136714456, -64.4988298464061, -63.80081667492737, -63.576397210509334, -64.29131311387872, -64.98942878378097, -64.0306769519595, -64.7526935596562, -64.2604849733899, -68.07002426990911, -65.53360295894757, -63.54972365872944, -65.49851265145307, -65.01551661659126, -63.79800585646126, -64.05269511620602, -64.80596245233737, -64.38078110661338, -65.68082090598254, -65.23099496735999, -65.78489872918057], "episode_reward": [-200.0, -200.0, -200.0, -200.0, -200.0, -200.0, -200.0, -200.0, -200.0, -200.0, -200.0, -200.0, -200.0, -200.0, -200.0, -200.0, -200.0, -200.0, -200.0, -200.0, -200.0, -200.0, -200.0, -200.0, -200.0, -200.0, -200.0, -200.0, -200.0, -200.0, -200.0, -200.0, -200.0, -200.0, -200.0, -200.0, -200.0, -200.0, -200.0, -200.0, -200.0, -200.0, -200.0, -200.0, -200.0, -200.0, -200.0, -200.0, -200.0, -200.0, -200.0, -200.0, -200.0, -200.0, -200.0, -200.0, -200.0, -200.0, -200.0, -200.0, -200.0, -200.0, -200.0, -200.0, -200.0, -200.0, -200.0, -200.0, -200.0, -200.0, -200.0, -200.0, -200.0, -200.0, -200.0, -200.0, -200.0, -200.0, -200.0, -200.0, -200.0, -200.0, -200.0, -200.0, -200.0, -200.0, -200.0, -200.0, -200.0, -200.0, -200.0, -200.0, -200.0, -200.0, -200.0, -200.0, -200.0, -200.0, -200.0, -200.0, -200.0, -200.0, -200.0, -200.0, -200.0, -200.0, -200.0, -200.0, -200.0, -200.0, -200.0, -200.0, -200.0, -200.0, -200.0, -200.0, -200.0, -200.0, -200.0, -200.0, -200.0, -200.0, -200.0, -200.0, -200.0, -200.0, -200.0, -200.0, -200.0, -200.0, -200.0, -200.0, -200.0, -200.0, -200.0, -200.0, -200.0, -200.0, -200.0, -200.0, -200.0, -200.0, -200.0, -200.0, -200.0, -200.0, -200.0, -200.0, -200.0, -200.0, -200.0, -200.0, -200.0, -200.0, -200.0, -200.0, -200.0, -200.0, -200.0, -200.0, -200.0, -200.0, -200.0, -200.0, -200.0, -200.0, -200.0, -200.0, -200.0, -200.0, -200.0, -200.0, -200.0, -200.0, -200.0, -200.0, -200.0, -200.0, -200.0, -200.0, -200.0, -200.0, -200.0, -200.0, -200.0, -200.0, -200.0, -200.0, -200.0, -200.0, -200.0, -200.0, -200.0, -200.0, -200.0, -200.0, -200.0, -200.0, -200.0, -200.0, -200.0, -200.0, -200.0, -200.0, -200.0, -200.0, -200.0, -200.0, -200.0, -200.0, -200.0, -200.0, -200.0, -200.0, -200.0, -200.0, -200.0, -200.0, -200.0, -200.0, -200.0, -200.0, -200.0, -200.0, -200.0, -200.0, -200.0, -200.0, -200.0, -200.0, -200.0, -200.0, -200.0, -200.0, -200.0, -200.0, -200.0, -200.0, -200.0, -200.0, -200.0, -200.0, -200.0, -200.0, -200.0, -200.0, -200.0, -200.0, -200.0, -200.0], "nb_episode_steps": [200, 200, 200, 200, 200, 200, 200, 200, 200, 200, 200, 200, 200, 200, 200, 200, 200, 200, 200, 200, 200, 200, 200, 200, 200, 200, 200, 200, 200, 200, 200, 200, 200, 200, 200, 200, 200, 200, 200, 200, 200, 200, 200, 200, 200, 200, 200, 200, 200, 200, 200, 200, 200, 200, 200, 200, 200, 200, 200, 200, 200, 200, 200, 200, 200, 200, 200, 200, 200, 200, 200, 200, 200, 200, 200, 200, 200, 200, 200, 200, 200, 200, 200, 200, 200, 200, 200, 200, 200, 200, 200, 200, 200, 200, 200, 200, 200, 200, 200, 200, 200, 200, 200, 200, 200, 200, 200, 200, 200, 200, 200, 200, 200, 200, 200, 200, 200, 200, 200, 200, 200, 200, 200, 200, 200, 200, 200, 200, 200, 200, 200, 200, 200, 200, 200, 200, 200, 200, 200, 200, 200, 200, 200, 200, 200, 200, 200, 200, 200, 200, 200, 200, 200, 200, 200, 200, 200, 200, 200, 200, 200, 200, 200, 200, 200, 200, 200, 200, 200, 200, 200, 200, 200, 200, 200, 200, 200, 200, 200, 200, 200, 200, 200, 200, 200, 200, 200, 200, 200, 200, 200, 200, 200, 200, 200, 200, 200, 200, 200, 200, 200, 200, 200, 200, 200, 200, 200, 200, 200, 200, 200, 200, 200, 200, 200, 200, 200, 200, 200, 200, 200, 200, 200, 200, 200, 200, 200, 200, 200, 200, 200, 200, 200, 200, 200, 200, 200, 200, 200, 200, 200, 200, 200, 200, 200, 200, 200, 200, 200, 200], "nb_steps": [200, 400, 600, 800, 1000, 1200, 1400, 1600, 1800, 2000, 2200, 2400, 2600, 2800, 3000, 3200, 3400, 3600, 3800, 4000, 4200, 4400, 4600, 4800, 5000, 5200, 5400, 5600, 5800, 6000, 6200, 6400, 6600, 6800, 7000, 7200, 7400, 7600, 7800, 8000, 8200, 8400, 8600, 8800, 9000, 9200, 9400, 9600, 9800, 10000, 10200, 10400, 10600, 10800, 11000, 11200, 11400, 11600, 11800, 12000, 12200, 12400, 12600, 12800, 13000, 13200, 13400, 13600, 13800, 14000, 14200, 14400, 14600, 14800, 15000, 15200, 15400, 15600, 15800, 16000, 16200, 16400, 16600, 16800, 17000, 17200, 17400, 17600, 17800, 18000, 18200, 18400, 18600, 18800, 19000, 19200, 19400, 19600, 19800, 20000, 20200, 20400, 20600, 20800, 21000, 21200, 21400, 21600, 21800, 22000, 22200, 22400, 22600, 22800, 23000, 23200, 23400, 23600, 23800, 24000, 24200, 24400, 24600, 24800, 25000, 25200, 25400, 25600, 25800, 26000, 26200, 26400, 26600, 26800, 27000, 27200, 27400, 27600, 27800, 28000, 28200, 28400, 28600, 28800, 29000, 29200, 29400, 29600, 29800, 30000, 30200, 30400, 30600, 30800, 31000, 31200, 31400, 31600, 31800, 32000, 32200, 32400, 32600, 32800, 33000, 33200, 33400, 33600, 33800, 34000, 34200, 34400, 34600, 34800, 35000, 35200, 35400, 35600, 35800, 36000, 36200, 36400, 36600, 36800, 37000, 37200, 37400, 37600, 37800, 38000, 38200, 38400, 38600, 38800, 39000, 39200, 39400, 39600, 39800, 40000, 40200, 40400, 40600, 40800, 41000, 41200, 41400, 41600, 41800, 42000, 42200, 42400, 42600, 42800, 43000, 43200, 43400, 43600, 43800, 44000, 44200, 44400, 44600, 44800, 45000, 45200, 45400, 45600, 45800, 46000, 46200, 46400, 46600, 46800, 47000, 47200, 47400, 47600, 47800, 48000, 48200, 48400, 48600, 48800, 49000, 49200, 49400, 49600, 49800, 50000], "episode": [0, 1, 2, 3, 4, 5, 6, 7, 8, 9, 10, 11, 12, 13, 14, 15, 16, 17, 18, 19, 20, 21, 22, 23, 24, 25, 26, 27, 28, 29, 30, 31, 32, 33, 34, 35, 36, 37, 38, 39, 40, 41, 42, 43, 44, 45, 46, 47, 48, 49, 50, 51, 52, 53, 54, 55, 56, 57, 58, 59, 60, 61, 62, 63, 64, 65, 66, 67, 68, 69, 70, 71, 72, 73, 74, 75, 76, 77, 78, 79, 80, 81, 82, 83, 84, 85, 86, 87, 88, 89, 90, 91, 92, 93, 94, 95, 96, 97, 98, 99, 100, 101, 102, 103, 104, 105, 106, 107, 108, 109, 110, 111, 112, 113, 114, 115, 116, 117, 118, 119, 120, 121, 122, 123, 124, 125, 126, 127, 128, 129, 130, 131, 132, 133, 134, 135, 136, 137, 138, 139, 140, 141, 142, 143, 144, 145, 146, 147, 148, 149, 150, 151, 152, 153, 154, 155, 156, 157, 158, 159, 160, 161, 162, 163, 164, 165, 166, 167, 168, 169, 170, 171, 172, 173, 174, 175, 176, 177, 178, 179, 180, 181, 182, 183, 184, 185, 186, 187, 188, 189, 190, 191, 192, 193, 194, 195, 196, 197, 198, 199, 200, 201, 202, 203, 204, 205, 206, 207, 208, 209, 210, 211, 212, 213, 214, 215, 216, 217, 218, 219, 220, 221, 222, 223, 224, 225, 226, 227, 228, 229, 230, 231, 232, 233, 234, 235, 236, 237, 238, 239, 240, 241, 242, 243, 244, 245, 246, 247, 248, 249], "duration": [8.464145969999663, 13.643046010000035, 10.180226086999937, 2.4506310360002317, 2.3283241350000026, 2.3269530309999027, 2.235298221999983, 2.2975156669999706, 2.2570367540001826, 2.1957749939997484, 2.2367783109998527, 2.2063314710003397, 2.4519171209999513, 2.1941904749996866, 2.1969216569996206, 2.252408198000012, 2.265569771000173, 2.2249864390000766, 2.229538113000217, 2.217237958000169, 2.2219415739996293, 2.3189778860000843, 2.2238956460000736, 2.2651124549997803, 2.2442561799998657, 2.2838160370001788, 2.247218066000187, 2.220694061999893, 2.221714407000036, 2.230882474000282, 2.3310649720001493, 2.2437145610001608, 2.2434378770003605, 2.2376911679998557, 2.2687286150003274, 2.2276720160002697, 2.2144646000001558, 2.4040241640000204, 2.26668530500001, 2.2362111919997005, 2.268626913999924, 2.260085003000313, 2.224767396999596, 2.244298996999987, 2.3214809249998325, 2.2103232540002864, 2.205961992000084, 2.242635411000265, 2.256566912999915, 2.247647304000111, 2.2904028100001597, 2.2379357730001175, 2.306988027999978, 2.284578562000206, 2.23669277900035, 2.2467105780001475, 2.3225957340000605, 2.2633344029995897, 2.242112931000065, 2.265637252000033, 2.2169818320003287, 2.5060486229999697, 2.270301946000018, 2.236978445999739, 2.2221327440001915, 2.3047073980001187, 2.2643111570000656, 2.279870462999952, 2.2874387459996797, 2.3783894320004038, 2.297905032000017, 2.2584811369997624, 2.2617961930000092, 2.280709417000253, 2.316713834999973, 2.278658285000347, 2.2735823650000384, 2.291127671999675, 2.2950544240002273, 2.2744525690000046, 2.2495050369998353, 2.21855084300023, 2.2605968660000144, 2.2976337279997097, 2.2614125569998578, 2.254787698999735, 2.48389358500026, 2.2840545369999745, 2.2829465330000858, 2.2734413320004023, 2.2279423780000798, 2.314390923999781, 2.2482250749999366, 2.2919071569999687, 2.250598984000135, 2.23439613499977, 2.2980514550004045, 2.263939223000307, 2.2648577939999086, 2.247052179000093, 2.3400170230002004, 2.2511298429999442, 2.276258897000389, 2.2414936860000125, 2.2826002040001185, 2.255924170000071, 2.266585673999998, 2.2532326299997294, 2.2459946440003478, 2.302327186000184, 2.2518639750001057, 2.4783290119999037, 2.2878558490001524, 2.326929930999995, 2.262912770999719, 2.279156281000269, 2.2656446940000023, 2.2434665280002264, 2.3415946469999653, 2.307386821000364, 2.279528690999996, 2.3277636630000416, 2.322888810999757, 3.6237391390000084, 13.068800630000169, 10.472359235000113, 2.4386716680000973, 2.423591862000194, 2.3743681999999353, 2.2451783049996266, 2.5076389360001485, 2.2983939410000858, 2.22223780000013, 2.3149603749998278, 2.2793296400000145, 2.2719685090000894, 2.236829084999954, 2.2456282540001666, 2.232275753000067, 2.332272878999902, 2.245026028999746, 2.3078734739997344, 2.2464476689997355, 2.294896208999944, 2.2626672690003033, 2.2469952810001814, 2.2380351110000447, 2.2363343829997575, 2.3063714149998304, 2.22468726399984, 2.30894403100001, 2.2646837219999725, 2.3467862689999492, 2.265401408999878, 2.324641654000061, 2.4573888899999474, 2.3157506180000382, 2.3006132740001703, 2.265925019000406, 2.2707157929999084, 2.261687429000176, 2.345513724999819, 2.259434596000119, 2.2851793069999076, 2.3324291429998993, 2.3378973710000537, 2.3019316780000736, 2.3569036539997796, 2.2490669640001215, 2.3323471040002914, 2.332917630999873, 2.2978359069998078, 2.317345282000133, 2.3308828179997363, 2.3841951720000907, 2.2872864849996404, 2.2991941820000648, 2.29875740100033, 2.5300008290000733, 2.3131015580001986, 2.2788247339999543, 2.2829139190002934, 2.343973449999794, 2.346245030999853, 2.264671453000119, 2.267941792000329, 2.265435367000009, 2.3302863140002046, 2.316160008999759, 2.2789663689995905, 2.252971337999952, 2.316324897999948, 2.2877421850002975, 2.266529709000224, 2.2849160209998445, 2.2568346129996826, 2.374793861999933, 2.2697075730002325, 2.280159286000071, 2.298533418000261, 2.403707540999676, 2.310693499000081, 2.3106642009997813, 2.500066729000082, 2.356096976000117, 2.3061242120002134, 2.3357483240001784, 2.2833183550001195, 2.3193819069997517, 2.287076405999869, 2.322348170999703, 2.2950921510000626, 2.2930121190001955, 2.355318172999887, 2.3230303880000065, 2.264153302000068, 2.3562189589997615, 2.357929783000145, 2.3204222849999496, 2.333031787999971, 2.3177961219998906, 2.36817086200017, 2.321965852000176, 2.375048318000154, 2.325839449999876, 2.3569103909999285, 2.5835685199999716, 2.3617076840000664, 2.325269429999935, 2.330348567999863, 2.3729409309999028, 2.3551313259999915, 2.3399526630000764, 2.3317123699998774, 2.3559049779996712, 2.2947099539997, 2.3239690780001183, 2.281656773999657, 2.3384289810001064, 2.2818654309999147, 2.345221608999964, 2.326849859000049, 2.29195975499988, 2.940540022999812, 7.2263149850000445, 10.45807192700022, 7.197051272999943, 2.063780493000195, 2.022993219, 2.1238074249999954]}